digraph Tree {
node [shape=box, style="filled, rounded", color="black", fontname="helvetica"] ;
edge [fontname="helvetica"] ;
0 [label="Gaming_total_hours <= 0.357\ngini = 0.375\nsamples = 92\nvalue = [69, 23]\nclass = Not Concerning", fillcolor="#eeab7b"] ;
1 [label="gini = 0.0\nsamples = 64\nvalue = [64, 0]\nclass = Not Concerning", fillcolor="#e58139"] ;
0 -> 1 [labeldistance=2.5, labelangle=45, headlabel="True"] ;
2 [label="Gaming_frequency <= 0.833\ngini = 0.293\nsamples = 28\nvalue = [5, 23]\nclass = Concerning", fillcolor="#64b2eb"] ;
0 -> 2 [labeldistance=2.5, labelangle=-45, headlabel="False"] ;
3 [label="Think_about_gaming_during_tasks <= 0.5\ngini = 0.408\nsamples = 7\nvalue = [5, 2]\nclass = Not Concerning", fillcolor="#efb388"] ;
2 -> 3 ;
4 [label="gini = 0.0\nsamples = 5\nvalue = [5, 0]\nclass = Not Concerning", fillcolor="#e58139"] ;
3 -> 4 ;
5 [label="gini = 0.0\nsamples = 2\nvalue = [0, 2]\nclass = Concerning", fillcolor="#399de5"] ;
3 -> 5 ;
6 [label="gini = 0.0\nsamples = 21\nvalue = [0, 21]\nclass = Concerning", fillcolor="#399de5"] ;
2 -> 6 ;
}